-1.17167905e-01 -2.73235261e-01 -2.37657458e-01 -4.26395297e-01
   3.74862164e-01  1.27228469e-01  1.37647077e-01  5.61352558e-02
   2.38456070e-01  1.32627815e-01  6.18047178e-01 -3.15952718e-01
  -1.01855047e-01 -7.84775496e-01  9.96763259e-03  2.46818289e-01
   3.04058611e-01 -1.78440064e-01  1.54743463e-01 -3.89856786e-01
  -8.43978822e-02  3.04132085e-02 -5.46578646e-01  1.97415203e-01
  -5.86952902e-02 -1.97819144e-01  5.50281227e-01  1.83061421e-01
  -6.01245821e-01 -1.94634140e-01 -2.65395850e-01  2.28991061e-01
  -1.31469876e-01 -3.34039092e-01  5.92863739e-01 -1.45377293e-01
   2.19470680e-01  8.15277621e-02  6.14059567e-01  2.08171401e-02
   1.93989247e-01 -1.57538384e-01 -2.12067366e-01 -2.95593202e-01
  -6.12432480e-01 -7.04033971e-01  2.76146412e-01 -3.24511640e-02
   3.05987239e-01  2.06437185e-01 -3.42231572e-01  4.66770262e-01
   5.00851691e-01 -2.83864647e-01  1.12708345e-01  3.97190660e-01
   2.10896254e-01  1.65462308e-02 -1.02759168e-01 -7.44518876e-01
  -2.63995528e-01 -2.20595300e-01 -9.27830935e-02  8.45015407e-01
   5.87513924e-01  5.00356436e-01  2.80769497e-01  1.80507869e-01
  -7.62006082e-03 -2.15778559e-01 -3.74033600e-02 -6.72206283e-01
   3.56825888e-01 -5.85241437e-01 -2.82784924e-04 -1.07661650e-01
  -1.39419094e-01  5.45106113e-01 -5.50745130e-01 -3.42441350e-01
  -5.05002677e-01 -5.59615493e-01 -1.29197985e-01  2.98399210e-01
   4.99994814e-01  8.42387825e-02  3.37192476e-01 -3.34287107e-01
  -5.62954783e-01  6.07612729e-01  4.18967962e-01 -1.11233769e-02
  -2.97870040e-01 -1.87219918e-01  3.75831932e-01  2.24553451e-01
   5.07351011e-03 -6.18660152e-01 -5.82188189e-01  1.82412356e-01
  -3.67629707e-01  8.83426726e-01  3.38249207e-01 -4.49578226e-01
   1.01117410e-01  2.64056027e-01  1.09405555e-02 -4.69263941e-02
   4.23935354e-02 -4.20894384e-01  2.33444989e-01  2.74196267e-01
   4.01699245e-01  3.92353475e-01 -2.21925914e-01  2.13420480e-01
  -2.04449371e-01  6.26625896e-01  3.09489757e-01  3.94206107e-01
  -4.94275868e-01 -2.94186383e-01  3.78007472e-01  1.81481242e-01
   2.84830481e-01 -4.50794607e-01  3.70976388e-01  5.20834886e-02
